digraph Tree {
node [shape=box] ;
0 [label="Cou <= 0.5\ngini = 0.4403\nsamples = 217\nvalue = [71, 146]"] ;
1 [label="Unnamed: 0 <= 21439.0\ngini = 0.3523\nsamples = 92\nvalue = [71, 21]"] ;
0 -> 1 [labeldistance=2.5, labelangle=45, headlabel="True"] ;
2 [label="Unnamed: 0 <= 11553.5\ngini = 0.2604\nsamples = 65\nvalue = [55, 10]"] ;
1 -> 2 ;
3 [label="Unnamed: 0 <= 1469.5\ngini = 0.1841\nsamples = 39\nvalue = [35, 4]"] ;
2 -> 3 ;
4 [label="Weekday <= 3.0\ngini = 0.5\nsamples = 2\nvalue = [1, 1]"] ;
3 -> 4 ;
5 [label="gini = 0.0\nsamples = 1\nvalue = [1, 0]"] ;
4 -> 5 ;
6 [label="gini = 0.0\nsamples = 1\nvalue = [0, 1]"] ;
4 -> 6 ;
7 [label="Unnamed: 0 <= 8245.0\ngini = 0.149\nsamples = 37\nvalue = [34, 3]"] ;
3 -> 7 ;
8 [label="Unnamed: 0 <= 7676.5\ngini = 0.2112\nsamples = 25\nvalue = [22, 3]"] ;
7 -> 8 ;
9 [label="Unnamed: 0 <= 3765.0\ngini = 0.1528\nsamples = 24\nvalue = [22, 2]"] ;
8 -> 9 ;
10 [label="gini = 0.0\nsamples = 11\nvalue = [11, 0]"] ;
9 -> 10 ;
11 [label="Unnamed: 0 <= 3882.0\ngini = 0.2604\nsamples = 13\nvalue = [11, 2]"] ;
9 -> 11 ;
12 [label="gini = 0.0\nsamples = 1\nvalue = [0, 1]"] ;
11 -> 12 ;
13 [label="CruisingSpd <= 0.5\ngini = 0.1528\nsamples = 12\nvalue = [11, 1]"] ;
11 -> 13 ;
14 [label="gini = 0.0\nsamples = 8\nvalue = [8, 0]"] ;
13 -> 14 ;
15 [label="Unnamed: 0 <= 6197.5\ngini = 0.375\nsamples = 4\nvalue = [3, 1]"] ;
13 -> 15 ;
16 [label="gini = 0.0\nsamples = 2\nvalue = [2, 0]"] ;
15 -> 16 ;
17 [label="Unnamed: 0 <= 6667.0\ngini = 0.5\nsamples = 2\nvalue = [1, 1]"] ;
15 -> 17 ;
18 [label="gini = 0.0\nsamples = 1\nvalue = [0, 1]"] ;
17 -> 18 ;
19 [label="gini = 0.0\nsamples = 1\nvalue = [1, 0]"] ;
17 -> 19 ;
20 [label="gini = 0.0\nsamples = 1\nvalue = [0, 1]"] ;
8 -> 20 ;
21 [label="gini = 0.0\nsamples = 12\nvalue = [12, 0]"] ;
7 -> 21 ;
22 [label="Unnamed: 0 <= 11679.0\ngini = 0.355\nsamples = 26\nvalue = [20, 6]"] ;
2 -> 22 ;
23 [label="gini = 0.0\nsamples = 1\nvalue = [0, 1]"] ;
22 -> 23 ;
24 [label="Unnamed: 0 <= 14584.0\ngini = 0.32\nsamples = 25\nvalue = [20, 5]"] ;
22 -> 24 ;
25 [label="Unnamed: 0 <= 13932.5\ngini = 0.4444\nsamples = 9\nvalue = [6, 3]"] ;
24 -> 25 ;
26 [label="Unnamed: 0 <= 11960.5\ngini = 0.2449\nsamples = 7\nvalue = [6, 1]"] ;
25 -> 26 ;
27 [label="Unnamed: 0 <= 11869.0\ngini = 0.4444\nsamples = 3\nvalue = [2, 1]"] ;
26 -> 27 ;
28 [label="gini = 0.0\nsamples = 2\nvalue = [2, 0]"] ;
27 -> 28 ;
29 [label="gini = 0.0\nsamples = 1\nvalue = [0, 1]"] ;
27 -> 29 ;
30 [label="gini = 0.0\nsamples = 4\nvalue = [4, 0]"] ;
26 -> 30 ;
31 [label="gini = 0.0\nsamples = 2\nvalue = [0, 2]"] ;
25 -> 31 ;
32 [label="Unnamed: 0 <= 19416.0\ngini = 0.2188\nsamples = 16\nvalue = [14, 2]"] ;
24 -> 32 ;
33 [label="Unnamed: 0 <= 19242.0\ngini = 0.2975\nsamples = 11\nvalue = [9, 2]"] ;
32 -> 33 ;
34 [label="Unnamed: 0 <= 17244.5\ngini = 0.18\nsamples = 10\nvalue = [9, 1]"] ;
33 -> 34 ;
35 [label="Unnamed: 0 <= 16845.5\ngini = 0.32\nsamples = 5\nvalue = [4, 1]"] ;
34 -> 35 ;
36 [label="gini = 0.0\nsamples = 4\nvalue = [4, 0]"] ;
35 -> 36 ;
37 [label="gini = 0.0\nsamples = 1\nvalue = [0, 1]"] ;
35 -> 37 ;
38 [label="gini = 0.0\nsamples = 5\nvalue = [5, 0]"] ;
34 -> 38 ;
39 [label="gini = 0.0\nsamples = 1\nvalue = [0, 1]"] ;
33 -> 39 ;
40 [label="gini = 0.0\nsamples = 5\nvalue = [5, 0]"] ;
32 -> 40 ;
41 [label="Unnamed: 0 <= 29801.0\ngini = 0.4829\nsamples = 27\nvalue = [16, 11]"] ;
1 -> 41 ;
42 [label="Unnamed: 0 <= 22118.5\ngini = 0.5\nsamples = 22\nvalue = [11, 11]"] ;
41 -> 42 ;
43 [label="gini = 0.0\nsamples = 2\nvalue = [0, 2]"] ;
42 -> 43 ;
44 [label="Unnamed: 0 <= 29071.5\ngini = 0.495\nsamples = 20\nvalue = [11, 9]"] ;
42 -> 44 ;
45 [label="Unnamed: 0 <= 28562.5\ngini = 0.4753\nsamples = 18\nvalue = [11, 7]"] ;
44 -> 45 ;
46 [label="Unnamed: 0 <= 28070.0\ngini = 0.4922\nsamples = 16\nvalue = [9, 7]"] ;
45 -> 46 ;
47 [label="Unnamed: 0 <= 27354.0\ngini = 0.48\nsamples = 15\nvalue = [9, 6]"] ;
46 -> 47 ;
48 [label="Unnamed: 0 <= 27272.0\ngini = 0.497\nsamples = 13\nvalue = [7, 6]"] ;
47 -> 48 ;
49 [label="Weekday <= 3.0\ngini = 0.4861\nsamples = 12\nvalue = [7, 5]"] ;
48 -> 49 ;
50 [label="CruisingSpd <= 0.5\ngini = 0.4959\nsamples = 11\nvalue = [6, 5]"] ;
49 -> 50 ;
51 [label="Unnamed: 0 <= 23135.5\ngini = 0.48\nsamples = 10\nvalue = [6, 4]"] ;
50 -> 51 ;
52 [label="gini = 0.0\nsamples = 3\nvalue = [3, 0]"] ;
51 -> 52 ;
53 [label="Unnamed: 0 <= 27091.0\ngini = 0.4898\nsamples = 7\nvalue = [3, 4]"] ;
51 -> 53 ;
54 [label="Unnamed: 0 <= 26384.5\ngini = 0.4444\nsamples = 6\nvalue = [2, 4]"] ;
53 -> 54 ;
55 [label="Unnamed: 0 <= 23750.5\ngini = 0.5\nsamples = 4\nvalue = [2, 2]"] ;
54 -> 55 ;
56 [label="gini = 0.0\nsamples = 1\nvalue = [0, 1]"] ;
55 -> 56 ;
57 [label="Unnamed: 0 <= 24834.0\ngini = 0.4444\nsamples = 3\nvalue = [2, 1]"] ;
55 -> 57 ;
58 [label="gini = 0.0\nsamples = 1\nvalue = [1, 0]"] ;
57 -> 58 ;
59 [label="Unnamed: 0 <= 25711.5\ngini = 0.5\nsamples = 2\nvalue = [1, 1]"] ;
57 -> 59 ;
60 [label="gini = 0.0\nsamples = 1\nvalue = [0, 1]"] ;
59 -> 60 ;
61 [label="gini = 0.0\nsamples = 1\nvalue = [1, 0]"] ;
59 -> 61 ;
62 [label="gini = 0.0\nsamples = 2\nvalue = [0, 2]"] ;
54 -> 62 ;
63 [label="gini = 0.0\nsamples = 1\nvalue = [1, 0]"] ;
53 -> 63 ;
64 [label="gini = 0.0\nsamples = 1\nvalue = [0, 1]"] ;
50 -> 64 ;
65 [label="gini = 0.0\nsamples = 1\nvalue = [1, 0]"] ;
49 -> 65 ;
66 [label="gini = 0.0\nsamples = 1\nvalue = [0, 1]"] ;
48 -> 66 ;
67 [label="gini = 0.0\nsamples = 2\nvalue = [2, 0]"] ;
47 -> 67 ;
68 [label="gini = 0.0\nsamples = 1\nvalue = [0, 1]"] ;
46 -> 68 ;
69 [label="gini = 0.0\nsamples = 2\nvalue = [2, 0]"] ;
45 -> 69 ;
70 [label="gini = 0.0\nsamples = 2\nvalue = [0, 2]"] ;
44 -> 70 ;
71 [label="gini = 0.0\nsamples = 5\nvalue = [5, 0]"] ;
41 -> 71 ;
72 [label="gini = 0.0\nsamples = 125\nvalue = [0, 125]"] ;
0 -> 72 [labeldistance=2.5, labelangle=-45, headlabel="False"] ;
}