digraph Tree {
node [shape=box] ;
0 [label="Cou <= 0.5\ngini = 0.4684\nsamples = 823\nvalue = [308, 515]"] ;
1 [label="MajorUsCarrier <= 0.5\ngini = 0.4621\nsamples = 483\nvalue = [308, 175]"] ;
0 -> 1 [labeldistance=2.5, labelangle=45, headlabel="True"] ;
2 [label="gini = 0.0\nsamples = 41\nvalue = [41, 0]"] ;
1 -> 2 ;
3 [label="AltCat <= 0.5\ngini = 0.4783\nsamples = 442\nvalue = [267, 175]"] ;
1 -> 3 ;
4 [label="Weekday <= 3.0\ngini = 0.4995\nsamples = 248\nvalue = [128, 120]"] ;
3 -> 4 ;
5 [label="CruisingSpd <= 0.5\ngini = 0.4993\nsamples = 247\nvalue = [128, 119]"] ;
4 -> 5 ;
6 [label="gini = 0.4991\nsamples = 234\nvalue = [122, 112]"] ;
5 -> 6 ;
7 [label="gini = 0.497\nsamples = 13\nvalue = [6, 7]"] ;
5 -> 7 ;
8 [label="gini = 0.0\nsamples = 1\nvalue = [0, 1]"] ;
4 -> 8 ;
9 [label="AltCat <= 1.5\ngini = 0.4063\nsamples = 194\nvalue = [139, 55]"] ;
3 -> 9 ;
10 [label="Weekday <= 3.0\ngini = 0.2374\nsamples = 109\nvalue = [94, 15]"] ;
9 -> 10 ;
11 [label="CruisingSpd <= 0.5\ngini = 0.2411\nsamples = 107\nvalue = [92, 15]"] ;
10 -> 11 ;
12 [label="gini = 0.2285\nsamples = 38\nvalue = [33, 5]"] ;
11 -> 12 ;
13 [label="gini = 0.2478\nsamples = 69\nvalue = [59, 10]"] ;
11 -> 13 ;
14 [label="gini = 0.0\nsamples = 2\nvalue = [2, 0]"] ;
10 -> 14 ;
15 [label="CruisingSpd <= 0.5\ngini = 0.4983\nsamples = 85\nvalue = [45, 40]"] ;
9 -> 15 ;
16 [label="gini = 0.0\nsamples = 6\nvalue = [6, 0]"] ;
15 -> 16 ;
17 [label="gini = 0.4999\nsamples = 79\nvalue = [39, 40]"] ;
15 -> 17 ;
18 [label="gini = 0.0\nsamples = 340\nvalue = [0, 340]"] ;
0 -> 18 [labeldistance=2.5, labelangle=-45, headlabel="False"] ;
}