digraph Tree {
node [shape=box] ;
0 [label="Cou <= 0.5\ngini = 0.4684\nsamples = 823\nvalue = [308, 515]"] ;
1 [label="MajorUsCarrier <= 0.5\ngini = 0.4621\nsamples = 483\nvalue = [308, 175]"] ;
0 -> 1 [labeldistance=2.5, labelangle=45, headlabel="True"] ;
2 [label="gini = 0.0\nsamples = 41\nvalue = [41, 0]"] ;
1 -> 2 ;
3 [label="AltCat <= 0.5\ngini = 0.4783\nsamples = 442\nvalue = [267, 175]"] ;
1 -> 3 ;
4 [label="Weekday <= 3.0\ngini = 0.4995\nsamples = 248\nvalue = [128, 120]"] ;
3 -> 4 ;
5 [label="gini = 0.4993\nsamples = 247\nvalue = [128, 119]"] ;
4 -> 5 ;
6 [label="gini = 0.0\nsamples = 1\nvalue = [0, 1]"] ;
4 -> 6 ;
7 [label="AltCat <= 1.5\ngini = 0.4063\nsamples = 194\nvalue = [139, 55]"] ;
3 -> 7 ;
8 [label="Weekday <= 3.0\ngini = 0.2374\nsamples = 109\nvalue = [94, 15]"] ;
7 -> 8 ;
9 [label="gini = 0.2411\nsamples = 107\nvalue = [92, 15]"] ;
8 -> 9 ;
10 [label="gini = 0.0\nsamples = 2\nvalue = [2, 0]"] ;
8 -> 10 ;
11 [label="gini = 0.4983\nsamples = 85\nvalue = [45, 40]"] ;
7 -> 11 ;
12 [label="gini = 0.0\nsamples = 340\nvalue = [0, 340]"] ;
0 -> 12 [labeldistance=2.5, labelangle=-45, headlabel="False"] ;
}