digraph Tree {
node [shape=box] ;
0 [label="Cou <= 0.5\ngini = 0.4684\nsamples = 823\nvalue = [308, 515]"] ;
1 [label="MajorUsCarrier <= 0.5\ngini = 0.4621\nsamples = 483\nvalue = [308, 175]"] ;
0 -> 1 [labeldistance=2.5, labelangle=45, headlabel="True"] ;
2 [label="gini = 0.0\nsamples = 41\nvalue = [41, 0]"] ;
1 -> 2 ;
3 [label="Unnamed: 0 <= 59526.0\ngini = 0.4783\nsamples = 442\nvalue = [267, 175]"] ;
1 -> 3 ;
4 [label="Unnamed: 0 <= 8062.5\ngini = 0.4965\nsamples = 192\nvalue = [88, 104]"] ;
3 -> 4 ;
5 [label="Unnamed: 0 <= 5995.5\ngini = 0.2449\nsamples = 28\nvalue = [24, 4]"] ;
4 -> 5 ;
6 [label="Weekday <= 3.0\ngini = 0.0997\nsamples = 19\nvalue = [18, 1]"] ;
5 -> 6 ;
7 [label="gini = 0.0\nsamples = 17\nvalue = [17, 0]"] ;
6 -> 7 ;
8 [label="Unnamed: 0 <= 2529.5\ngini = 0.5\nsamples = 2\nvalue = [1, 1]"] ;
6 -> 8 ;
9 [label="gini = 0.0\nsamples = 1\nvalue = [0, 1]"] ;
8 -> 9 ;
10 [label="gini = 0.0\nsamples = 1\nvalue = [1, 0]"] ;
8 -> 10 ;
11 [label="Unnamed: 0 <= 6651.0\ngini = 0.4444\nsamples = 9\nvalue = [6, 3]"] ;
5 -> 11 ;
12 [label="Unnamed: 0 <= 6524.0\ngini = 0.375\nsamples = 4\nvalue = [1, 3]"] ;
11 -> 12 ;
13 [label="gini = 0.0\nsamples = 2\nvalue = [0, 2]"] ;
12 -> 13 ;
14 [label="Unnamed: 0 <= 6585.5\ngini = 0.5\nsamples = 2\nvalue = [1, 1]"] ;
12 -> 14 ;
15 [label="gini = 0.0\nsamples = 1\nvalue = [1, 0]"] ;
14 -> 15 ;
16 [label="gini = 0.0\nsamples = 1\nvalue = [0, 1]"] ;
14 -> 16 ;
17 [label="gini = 0.0\nsamples = 5\nvalue = [5, 0]"] ;
11 -> 17 ;
18 [label="Unnamed: 0 <= 44810.0\ngini = 0.4759\nsamples = 164\nvalue = [64, 100]"] ;
4 -> 18 ;
19 [label="Unnamed: 0 <= 30956.5\ngini = 0.4286\nsamples = 90\nvalue = [28, 62]"] ;
18 -> 19 ;
20 [label="Unnamed: 0 <= 10022.5\ngini = 0.4849\nsamples = 46\nvalue = [19, 27]"] ;
19 -> 20 ;
21 [label="gini = 0.0\nsamples = 6\nvalue = [0, 6]"] ;
20 -> 21 ;
22 [label="Unnamed: 0 <= 29197.5\ngini = 0.4988\nsamples = 40\nvalue = [19, 21]"] ;
20 -> 22 ;
23 [label="Unnamed: 0 <= 26786.5\ngini = 0.4909\nsamples = 37\nvalue = [16, 21]"] ;
22 -> 23 ;
24 [label="CruisingSpd <= 0.5\ngini = 0.4995\nsamples = 33\nvalue = [16, 17]"] ;
23 -> 24 ;
25 [label="Unnamed: 0 <= 21775.5\ngini = 0.4717\nsamples = 21\nvalue = [8, 13]"] ;
24 -> 25 ;
26 [label="Unnamed: 0 <= 15758.5\ngini = 0.4152\nsamples = 17\nvalue = [5, 12]"] ;
25 -> 26 ;
27 [label="Unnamed: 0 <= 13700.5\ngini = 0.5\nsamples = 8\nvalue = [4, 4]"] ;
26 -> 27 ;
28 [label="Unnamed: 0 <= 11926.5\ngini = 0.32\nsamples = 5\nvalue = [1, 4]"] ;
27 -> 28 ;
29 [label="gini = 0.0\nsamples = 2\nvalue = [0, 2]"] ;
28 -> 29 ;
30 [label="Unnamed: 0 <= 12532.5\ngini = 0.4444\nsamples = 3\nvalue = [1, 2]"] ;
28 -> 30 ;
31 [label="gini = 0.0\nsamples = 1\nvalue = [1, 0]"] ;
30 -> 31 ;
32 [label="gini = 0.0\nsamples = 2\nvalue = [0, 2]"] ;
30 -> 32 ;
33 [label="gini = 0.0\nsamples = 3\nvalue = [3, 0]"] ;
27 -> 33 ;
34 [label="Unnamed: 0 <= 19221.0\ngini = 0.1975\nsamples = 9\nvalue = [1, 8]"] ;
26 -> 34 ;
35 [label="gini = 0.0\nsamples = 5\nvalue = [0, 5]"] ;
34 -> 35 ;
36 [label="Unnamed: 0 <= 20207.5\ngini = 0.375\nsamples = 4\nvalue = [1, 3]"] ;
34 -> 36 ;
37 [label="gini = 0.0\nsamples = 1\nvalue = [1, 0]"] ;
36 -> 37 ;
38 [label="gini = 0.0\nsamples = 3\nvalue = [0, 3]"] ;
36 -> 38 ;
39 [label="Unnamed: 0 <= 23726.0\ngini = 0.375\nsamples = 4\nvalue = [3, 1]"] ;
25 -> 39 ;
40 [label="gini = 0.0\nsamples = 3\nvalue = [3, 0]"] ;
39 -> 40 ;
41 [label="gini = 0.0\nsamples = 1\nvalue = [0, 1]"] ;
39 -> 41 ;
42 [label="Unnamed: 0 <= 12662.5\ngini = 0.4444\nsamples = 12\nvalue = [8, 4]"] ;
24 -> 42 ;
43 [label="gini = 0.0\nsamples = 2\nvalue = [2, 0]"] ;
42 -> 43 ;
44 [label="Unnamed: 0 <= 14284.0\ngini = 0.48\nsamples = 10\nvalue = [6, 4]"] ;
42 -> 44 ;
45 [label="gini = 0.0\nsamples = 2\nvalue = [0, 2]"] ;
44 -> 45 ;
46 [label="Unnamed: 0 <= 23865.0\ngini = 0.375\nsamples = 8\nvalue = [6, 2]"] ;
44 -> 46 ;
47 [label="gini = 0.0\nsamples = 4\nvalue = [4, 0]"] ;
46 -> 47 ;
48 [label="Unnamed: 0 <= 26159.0\ngini = 0.5\nsamples = 4\nvalue = [2, 2]"] ;
46 -> 48 ;
49 [label="gini = 0.0\nsamples = 2\nvalue = [0, 2]"] ;
48 -> 49 ;
50 [label="gini = 0.0\nsamples = 2\nvalue = [2, 0]"] ;
48 -> 50 ;
51 [label="gini = 0.0\nsamples = 4\nvalue = [0, 4]"] ;
23 -> 51 ;
52 [label="gini = 0.0\nsamples = 3\nvalue = [3, 0]"] ;
22 -> 52 ;
53 [label="Unnamed: 0 <= 42194.0\ngini = 0.3254\nsamples = 44\nvalue = [9, 35]"] ;
19 -> 53 ;
54 [label="Unnamed: 0 <= 37014.5\ngini = 0.375\nsamples = 36\nvalue = [9, 27]"] ;
53 -> 54 ;
55 [label="Unnamed: 0 <= 33955.0\ngini = 0.1884\nsamples = 19\nvalue = [2, 17]"] ;
54 -> 55 ;
56 [label="Unnamed: 0 <= 33919.5\ngini = 0.3457\nsamples = 9\nvalue = [2, 7]"] ;
55 -> 56 ;
57 [label="Unnamed: 0 <= 32922.5\ngini = 0.2188\nsamples = 8\nvalue = [1, 7]"] ;
56 -> 57 ;
58 [label="gini = 0.0\nsamples = 5\nvalue = [0, 5]"] ;
57 -> 58 ;
59 [label="Unnamed: 0 <= 33314.5\ngini = 0.4444\nsamples = 3\nvalue = [1, 2]"] ;
57 -> 59 ;
60 [label="gini = 0.0\nsamples = 1\nvalue = [1, 0]"] ;
59 -> 60 ;
61 [label="gini = 0.0\nsamples = 2\nvalue = [0, 2]"] ;
59 -> 61 ;
62 [label="gini = 0.0\nsamples = 1\nvalue = [1, 0]"] ;
56 -> 62 ;
63 [label="gini = 0.0\nsamples = 10\nvalue = [0, 10]"] ;
55 -> 63 ;
64 [label="Unnamed: 0 <= 38476.0\ngini = 0.4844\nsamples = 17\nvalue = [7, 10]"] ;
54 -> 64 ;
65 [label="gini = 0.0\nsamples = 4\nvalue = [4, 0]"] ;
64 -> 65 ;
66 [label="Unnamed: 0 <= 41791.0\ngini = 0.355\nsamples = 13\nvalue = [3, 10]"] ;
64 -> 66 ;
67 [label="Unnamed: 0 <= 40385.0\ngini = 0.2778\nsamples = 12\nvalue = [2, 10]"] ;
66 -> 67 ;
68 [label="gini = 0.0\nsamples = 5\nvalue = [0, 5]"] ;
67 -> 68 ;
69 [label="Unnamed: 0 <= 40479.0\ngini = 0.4082\nsamples = 7\nvalue = [2, 5]"] ;
67 -> 69 ;
70 [label="gini = 0.0\nsamples = 1\nvalue = [1, 0]"] ;
69 -> 70 ;
71 [label="Unnamed: 0 <= 41510.5\ngini = 0.2778\nsamples = 6\nvalue = [1, 5]"] ;
69 -> 71 ;
72 [label="gini = 0.0\nsamples = 3\nvalue = [0, 3]"] ;
71 -> 72 ;
73 [label="Unnamed: 0 <= 41520.0\ngini = 0.4444\nsamples = 3\nvalue = [1, 2]"] ;
71 -> 73 ;
74 [label="gini = 0.0\nsamples = 1\nvalue = [1, 0]"] ;
73 -> 74 ;
75 [label="gini = 0.0\nsamples = 2\nvalue = [0, 2]"] ;
73 -> 75 ;
76 [label="gini = 0.0\nsamples = 1\nvalue = [1, 0]"] ;
66 -> 76 ;
77 [label="gini = 0.0\nsamples = 8\nvalue = [0, 8]"] ;
53 -> 77 ;
78 [label="Unnamed: 0 <= 45988.5\ngini = 0.4996\nsamples = 74\nvalue = [36, 38]"] ;
18 -> 78 ;
79 [label="gini = 0.0\nsamples = 6\nvalue = [6, 0]"] ;
78 -> 79 ;
80 [label="CruisingSpd <= 0.5\ngini = 0.4931\nsamples = 68\nvalue = [30, 38]"] ;
78 -> 80 ;
81 [label="Unnamed: 0 <= 47745.5\ngini = 0.4965\nsamples = 48\nvalue = [26, 22]"] ;
80 -> 81 ;
82 [label="Unnamed: 0 <= 46886.5\ngini = 0.2778\nsamples = 6\nvalue = [1, 5]"] ;
81 -> 82 ;
83 [label="gini = 0.0\nsamples = 3\nvalue = [0, 3]"] ;
82 -> 83 ;
84 [label="Unnamed: 0 <= 47119.5\ngini = 0.4444\nsamples = 3\nvalue = [1, 2]"] ;
82 -> 84 ;
85 [label="gini = 0.0\nsamples = 1\nvalue = [1, 0]"] ;
84 -> 85 ;
86 [label="gini = 0.0\nsamples = 2\nvalue = [0, 2]"] ;
84 -> 86 ;
87 [label="Unnamed: 0 <= 58382.5\ngini = 0.4819\nsamples = 42\nvalue = [25, 17]"] ;
81 -> 87 ;
88 [label="Unnamed: 0 <= 54062.0\ngini = 0.4602\nsamples = 39\nvalue = [25, 14]"] ;
87 -> 88 ;
89 [label="Unnamed: 0 <= 49397.0\ngini = 0.3599\nsamples = 17\nvalue = [13, 4]"] ;
88 -> 89 ;
90 [label="Unnamed: 0 <= 48738.0\ngini = 0.5\nsamples = 6\nvalue = [3, 3]"] ;
89 -> 90 ;
91 [label="gini = 0.0\nsamples = 2\nvalue = [2, 0]"] ;
90 -> 91 ;
92 [label="Unnamed: 0 <= 49183.0\ngini = 0.375\nsamples = 4\nvalue = [1, 3]"] ;
90 -> 92 ;
93 [label="Unnamed: 0 <= 49003.0\ngini = 0.5\nsamples = 2\nvalue = [1, 1]"] ;
92 -> 93 ;
94 [label="gini = 0.0\nsamples = 1\nvalue = [0, 1]"] ;
93 -> 94 ;
95 [label="gini = 0.0\nsamples = 1\nvalue = [1, 0]"] ;
93 -> 95 ;
96 [label="gini = 0.0\nsamples = 2\nvalue = [0, 2]"] ;
92 -> 96 ;
97 [label="Unnamed: 0 <= 51753.5\ngini = 0.1653\nsamples = 11\nvalue = [10, 1]"] ;
89 -> 97 ;
98 [label="Unnamed: 0 <= 50982.5\ngini = 0.32\nsamples = 5\nvalue = [4, 1]"] ;
97 -> 98 ;
99 [label="gini = 0.0\nsamples = 4\nvalue = [4, 0]"] ;
98 -> 99 ;
100 [label="gini = 0.0\nsamples = 1\nvalue = [0, 1]"] ;
98 -> 100 ;
101 [label="gini = 0.0\nsamples = 6\nvalue = [6, 0]"] ;
97 -> 101 ;
102 [label="Unnamed: 0 <= 56899.0\ngini = 0.4959\nsamples = 22\nvalue = [12, 10]"] ;
88 -> 102 ;
103 [label="Unnamed: 0 <= 54395.5\ngini = 0.4986\nsamples = 19\nvalue = [9, 10]"] ;
102 -> 103 ;
104 [label="gini = 0.0\nsamples = 2\nvalue = [0, 2]"] ;
103 -> 104 ;
105 [label="Unnamed: 0 <= 56831.0\ngini = 0.4983\nsamples = 17\nvalue = [9, 8]"] ;
103 -> 105 ;
106 [label="Unnamed: 0 <= 54879.5\ngini = 0.48\nsamples = 15\nvalue = [9, 6]"] ;
105 -> 106 ;
107 [label="gini = 0.0\nsamples = 2\nvalue = [2, 0]"] ;
106 -> 107 ;
108 [label="Unnamed: 0 <= 55053.0\ngini = 0.497\nsamples = 13\nvalue = [7, 6]"] ;
106 -> 108 ;
109 [label="gini = 0.0\nsamples = 2\nvalue = [0, 2]"] ;
108 -> 109 ;
110 [label="Unnamed: 0 <= 55259.5\ngini = 0.4628\nsamples = 11\nvalue = [7, 4]"] ;
108 -> 110 ;
111 [label="gini = 0.0\nsamples = 2\nvalue = [2, 0]"] ;
110 -> 111 ;
112 [label="Unnamed: 0 <= 56658.0\ngini = 0.4938\nsamples = 9\nvalue = [5, 4]"] ;
110 -> 112 ;
113 [label="Unnamed: 0 <= 56082.0\ngini = 0.4898\nsamples = 7\nvalue = [3, 4]"] ;
112 -> 113 ;
114 [label="Unnamed: 0 <= 55451.0\ngini = 0.4444\nsamples = 3\nvalue = [2, 1]"] ;
113 -> 114 ;
115 [label="gini = 0.0\nsamples = 1\nvalue = [0, 1]"] ;
114 -> 115 ;
116 [label="gini = 0.0\nsamples = 2\nvalue = [2, 0]"] ;
114 -> 116 ;
117 [label="Unnamed: 0 <= 56493.5\ngini = 0.375\nsamples = 4\nvalue = [1, 3]"] ;
113 -> 117 ;
118 [label="gini = 0.0\nsamples = 2\nvalue = [0, 2]"] ;
117 -> 118 ;
119 [label="Unnamed: 0 <= 56526.5\ngini = 0.5\nsamples = 2\nvalue = [1, 1]"] ;
117 -> 119 ;
120 [label="gini = 0.0\nsamples = 1\nvalue = [1, 0]"] ;
119 -> 120 ;
121 [label="gini = 0.0\nsamples = 1\nvalue = [0, 1]"] ;
119 -> 121 ;
122 [label="gini = 0.0\nsamples = 2\nvalue = [2, 0]"] ;
112 -> 122 ;
123 [label="gini = 0.0\nsamples = 2\nvalue = [0, 2]"] ;
105 -> 123 ;
124 [label="gini = 0.0\nsamples = 3\nvalue = [3, 0]"] ;
102 -> 124 ;
125 [label="gini = 0.0\nsamples = 3\nvalue = [0, 3]"] ;
87 -> 125 ;
126 [label="Unnamed: 0 <= 49493.5\ngini = 0.32\nsamples = 20\nvalue = [4, 16]"] ;
80 -> 126 ;
127 [label="Unnamed: 0 <= 49035.0\ngini = 0.4688\nsamples = 8\nvalue = [3, 5]"] ;
126 -> 127 ;
128 [label="Unnamed: 0 <= 47946.5\ngini = 0.2778\nsamples = 6\nvalue = [1, 5]"] ;
127 -> 128 ;
129 [label="gini = 0.0\nsamples = 3\nvalue = [0, 3]"] ;
128 -> 129 ;
130 [label="Unnamed: 0 <= 48032.5\ngini = 0.4444\nsamples = 3\nvalue = [1, 2]"] ;
128 -> 130 ;
131 [label="gini = 0.0\nsamples = 1\nvalue = [1, 0]"] ;
130 -> 131 ;
132 [label="gini = 0.0\nsamples = 2\nvalue = [0, 2]"] ;
130 -> 132 ;
133 [label="gini = 0.0\nsamples = 2\nvalue = [2, 0]"] ;
127 -> 133 ;
134 [label="Unnamed: 0 <= 56558.0\ngini = 0.1528\nsamples = 12\nvalue = [1, 11]"] ;
126 -> 134 ;
135 [label="gini = 0.0\nsamples = 8\nvalue = [0, 8]"] ;
134 -> 135 ;
136 [label="Unnamed: 0 <= 57311.0\ngini = 0.375\nsamples = 4\nvalue = [1, 3]"] ;
134 -> 136 ;
137 [label="gini = 0.0\nsamples = 1\nvalue = [1, 0]"] ;
136 -> 137 ;
138 [label="gini = 0.0\nsamples = 3\nvalue = [0, 3]"] ;
136 -> 138 ;
139 [label="CruisingSpd <= 0.5\ngini = 0.4067\nsamples = 250\nvalue = [179, 71]"] ;
3 -> 139 ;
140 [label="Unnamed: 0 <= 61440.0\ngini = 0.4649\nsamples = 166\nvalue = [105, 61]"] ;
139 -> 140 ;
141 [label="gini = 0.0\nsamples = 6\nvalue = [6, 0]"] ;
140 -> 141 ;
142 [label="Unnamed: 0 <= 105761.5\ngini = 0.4718\nsamples = 160\nvalue = [99, 61]"] ;
140 -> 142 ;
143 [label="Unnamed: 0 <= 63994.5\ngini = 0.4614\nsamples = 144\nvalue = [92, 52]"] ;
142 -> 143 ;
144 [label="Unnamed: 0 <= 63648.5\ngini = 0.4688\nsamples = 8\nvalue = [3, 5]"] ;
143 -> 144 ;
145 [label="Unnamed: 0 <= 61477.0\ngini = 0.5\nsamples = 6\nvalue = [3, 3]"] ;
144 -> 145 ;
146 [label="gini = 0.0\nsamples = 1\nvalue = [0, 1]"] ;
145 -> 146 ;
147 [label="Unnamed: 0 <= 61550.5\ngini = 0.48\nsamples = 5\nvalue = [3, 2]"] ;
145 -> 147 ;
148 [label="gini = 0.0\nsamples = 1\nvalue = [1, 0]"] ;
147 -> 148 ;
149 [label="Unnamed: 0 <= 61745.5\ngini = 0.5\nsamples = 4\nvalue = [2, 2]"] ;
147 -> 149 ;
150 [label="gini = 0.0\nsamples = 1\nvalue = [0, 1]"] ;
149 -> 150 ;
151 [label="Unnamed: 0 <= 62089.0\ngini = 0.4444\nsamples = 3\nvalue = [2, 1]"] ;
149 -> 151 ;
152 [label="gini = 0.0\nsamples = 1\nvalue = [1, 0]"] ;
151 -> 152 ;
153 [label="Unnamed: 0 <= 62939.0\ngini = 0.5\nsamples = 2\nvalue = [1, 1]"] ;
151 -> 153 ;
154 [label="gini = 0.0\nsamples = 1\nvalue = [0, 1]"] ;
153 -> 154 ;
155 [label="gini = 0.0\nsamples = 1\nvalue = [1, 0]"] ;
153 -> 155 ;
156 [label="gini = 0.0\nsamples = 2\nvalue = [0, 2]"] ;
144 -> 156 ;
157 [label="Unnamed: 0 <= 65897.0\ngini = 0.4523\nsamples = 136\nvalue = [89, 47]"] ;
143 -> 157 ;
158 [label="Unnamed: 0 <= 64128.5\ngini = 0.2778\nsamples = 12\nvalue = [10, 2]"] ;
157 -> 158 ;
159 [label="gini = 0.0\nsamples = 3\nvalue = [3, 0]"] ;
158 -> 159 ;
160 [label="Unnamed: 0 <= 64249.5\ngini = 0.3457\nsamples = 9\nvalue = [7, 2]"] ;
158 -> 160 ;
161 [label="gini = 0.0\nsamples = 1\nvalue = [0, 1]"] ;
160 -> 161 ;
162 [label="Unnamed: 0 <= 65082.0\ngini = 0.2188\nsamples = 8\nvalue = [7, 1]"] ;
160 -> 162 ;
163 [label="gini = 0.0\nsamples = 4\nvalue = [4, 0]"] ;
162 -> 163 ;
164 [label="Unnamed: 0 <= 65697.5\ngini = 0.375\nsamples = 4\nvalue = [3, 1]"] ;
162 -> 164 ;
165 [label="gini = 0.0\nsamples = 1\nvalue = [0, 1]"] ;
164 -> 165 ;
166 [label="gini = 0.0\nsamples = 3\nvalue = [3, 0]"] ;
164 -> 166 ;
167 [label="Unnamed: 0 <= 70450.0\ngini = 0.4624\nsamples = 124\nvalue = [79, 45]"] ;
157 -> 167 ;
168 [label="Unnamed: 0 <= 69578.5\ngini = 0.48\nsamples = 10\nvalue = [4, 6]"] ;
167 -> 168 ;
169 [label="Unnamed: 0 <= 66745.5\ngini = 0.4898\nsamples = 7\nvalue = [4, 3]"] ;
168 -> 169 ;
170 [label="gini = 0.0\nsamples = 1\nvalue = [0, 1]"] ;
169 -> 170 ;
171 [label="Unnamed: 0 <= 68285.0\ngini = 0.4444\nsamples = 6\nvalue = [4, 2]"] ;
169 -> 171 ;
172 [label="gini = 0.0\nsamples = 2\nvalue = [2, 0]"] ;
171 -> 172 ;
173 [label="Unnamed: 0 <= 68892.0\ngini = 0.5\nsamples = 4\nvalue = [2, 2]"] ;
171 -> 173 ;
174 [label="gini = 0.0\nsamples = 1\nvalue = [0, 1]"] ;
173 -> 174 ;
175 [label="Unnamed: 0 <= 68949.5\ngini = 0.4444\nsamples = 3\nvalue = [2, 1]"] ;
173 -> 175 ;
176 [label="gini = 0.0\nsamples = 1\nvalue = [1, 0]"] ;
175 -> 176 ;
177 [label="Unnamed: 0 <= 69150.0\ngini = 0.5\nsamples = 2\nvalue = [1, 1]"] ;
175 -> 177 ;
178 [label="gini = 0.0\nsamples = 1\nvalue = [0, 1]"] ;
177 -> 178 ;
179 [label="gini = 0.0\nsamples = 1\nvalue = [1, 0]"] ;
177 -> 179 ;
180 [label="gini = 0.0\nsamples = 3\nvalue = [0, 3]"] ;
168 -> 180 ;
181 [label="Unnamed: 0 <= 70878.5\ngini = 0.4501\nsamples = 114\nvalue = [75, 39]"] ;
167 -> 181 ;
182 [label="gini = 0.0\nsamples = 3\nvalue = [3, 0]"] ;
181 -> 182 ;
183 [label="Unnamed: 0 <= 71035.5\ngini = 0.4558\nsamples = 111\nvalue = [72, 39]"] ;
181 -> 183 ;
184 [label="gini = 0.0\nsamples = 1\nvalue = [0, 1]"] ;
183 -> 184 ;
185 [label="Unnamed: 0 <= 103296.0\ngini = 0.4522\nsamples = 110\nvalue = [72, 38]"] ;
183 -> 185 ;
186 [label="Unnamed: 0 <= 87472.0\ngini = 0.458\nsamples = 107\nvalue = [69, 38]"] ;
185 -> 186 ;
187 [label="Unnamed: 0 <= 84943.0\ngini = 0.4213\nsamples = 63\nvalue = [44, 19]"] ;
186 -> 187 ;
188 [label="Unnamed: 0 <= 80906.0\ngini = 0.4401\nsamples = 52\nvalue = [35, 17]"] ;
187 -> 188 ;
189 [label="Unnamed: 0 <= 79209.0\ngini = 0.4109\nsamples = 45\nvalue = [32, 13]"] ;
188 -> 189 ;
190 [label="Unnamed: 0 <= 79018.0\ngini = 0.4444\nsamples = 39\nvalue = [26, 13]"] ;
189 -> 190 ;
191 [label="Unnamed: 0 <= 78820.0\ngini = 0.4321\nsamples = 38\nvalue = [26, 12]"] ;
190 -> 191 ;
192 [label="Unnamed: 0 <= 78808.5\ngini = 0.4444\nsamples = 36\nvalue = [24, 12]"] ;
191 -> 192 ;
193 [label="Unnamed: 0 <= 77854.0\ngini = 0.431\nsamples = 35\nvalue = [24, 11]"] ;
192 -> 193 ;
194 [label="Unnamed: 0 <= 77525.5\ngini = 0.4592\nsamples = 28\nvalue = [18, 10]"] ;
193 -> 194 ;
195 [label="Unnamed: 0 <= 76647.0\ngini = 0.4444\nsamples = 27\nvalue = [18, 9]"] ;
194 -> 195 ;
196 [label="Unnamed: 0 <= 76456.0\ngini = 0.4608\nsamples = 25\nvalue = [16, 9]"] ;
195 -> 196 ;
197 [label="Unnamed: 0 <= 76328.5\ngini = 0.4234\nsamples = 23\nvalue = [16, 7]"] ;
196 -> 197 ;
198 [label="Unnamed: 0 <= 76280.5\ngini = 0.455\nsamples = 20\nvalue = [13, 7]"] ;
197 -> 198 ;
199 [label="Unnamed: 0 <= 74658.0\ngini = 0.4321\nsamples = 19\nvalue = [13, 6]"] ;
198 -> 199 ;
200 [label="Unnamed: 0 <= 73459.0\ngini = 0.4567\nsamples = 17\nvalue = [11, 6]"] ;
199 -> 200 ;
201 [label="Unnamed: 0 <= 71439.5\ngini = 0.3911\nsamples = 15\nvalue = [11, 4]"] ;
200 -> 201 ;
202 [label="Unnamed: 0 <= 71116.0\ngini = 0.5\nsamples = 4\nvalue = [2, 2]"] ;
201 -> 202 ;
203 [label="gini = 0.0\nsamples = 1\nvalue = [1, 0]"] ;
202 -> 203 ;
204 [label="Unnamed: 0 <= 71294.0\ngini = 0.4444\nsamples = 3\nvalue = [1, 2]"] ;
202 -> 204 ;
205 [label="gini = 0.0\nsamples = 1\nvalue = [0, 1]"] ;
204 -> 205 ;
206 [label="Unnamed: 0 <= 71423.0\ngini = 0.5\nsamples = 2\nvalue = [1, 1]"] ;
204 -> 206 ;
207 [label="gini = 0.0\nsamples = 1\nvalue = [1, 0]"] ;
206 -> 207 ;
208 [label="gini = 0.0\nsamples = 1\nvalue = [0, 1]"] ;
206 -> 208 ;
209 [label="Unnamed: 0 <= 71755.5\ngini = 0.2975\nsamples = 11\nvalue = [9, 2]"] ;
201 -> 209 ;
210 [label="gini = 0.0\nsamples = 3\nvalue = [3, 0]"] ;
209 -> 210 ;
211 [label="Unnamed: 0 <= 72013.5\ngini = 0.375\nsamples = 8\nvalue = [6, 2]"] ;
209 -> 211 ;
212 [label="gini = 0.0\nsamples = 1\nvalue = [0, 1]"] ;
211 -> 212 ;
213 [label="Unnamed: 0 <= 73150.5\ngini = 0.2449\nsamples = 7\nvalue = [6, 1]"] ;
211 -> 213 ;
214 [label="gini = 0.0\nsamples = 4\nvalue = [4, 0]"] ;
213 -> 214 ;
215 [label="Unnamed: 0 <= 73183.0\ngini = 0.4444\nsamples = 3\nvalue = [2, 1]"] ;
213 -> 215 ;
216 [label="gini = 0.0\nsamples = 1\nvalue = [0, 1]"] ;
215 -> 216 ;
217 [label="gini = 0.0\nsamples = 2\nvalue = [2, 0]"] ;
215 -> 217 ;
218 [label="gini = 0.0\nsamples = 2\nvalue = [0, 2]"] ;
200 -> 218 ;
219 [label="gini = 0.0\nsamples = 2\nvalue = [2, 0]"] ;
199 -> 219 ;
220 [label="gini = 0.0\nsamples = 1\nvalue = [0, 1]"] ;
198 -> 220 ;
221 [label="gini = 0.0\nsamples = 3\nvalue = [3, 0]"] ;
197 -> 221 ;
222 [label="gini = 0.0\nsamples = 2\nvalue = [0, 2]"] ;
196 -> 222 ;
223 [label="gini = 0.0\nsamples = 2\nvalue = [2, 0]"] ;
195 -> 223 ;
224 [label="gini = 0.0\nsamples = 1\nvalue = [0, 1]"] ;
194 -> 224 ;
225 [label="Unnamed: 0 <= 78596.0\ngini = 0.2449\nsamples = 7\nvalue = [6, 1]"] ;
193 -> 225 ;
226 [label="gini = 0.0\nsamples = 4\nvalue = [4, 0]"] ;
225 -> 226 ;
227 [label="Unnamed: 0 <= 78743.5\ngini = 0.4444\nsamples = 3\nvalue = [2, 1]"] ;
225 -> 227 ;
228 [label="gini = 0.0\nsamples = 1\nvalue = [0, 1]"] ;
227 -> 228 ;
229 [label="gini = 0.0\nsamples = 2\nvalue = [2, 0]"] ;
227 -> 229 ;
230 [label="gini = 0.0\nsamples = 1\nvalue = [0, 1]"] ;
192 -> 230 ;
231 [label="gini = 0.0\nsamples = 2\nvalue = [2, 0]"] ;
191 -> 231 ;
232 [label="gini = 0.0\nsamples = 1\nvalue = [0, 1]"] ;
190 -> 232 ;
233 [label="gini = 0.0\nsamples = 6\nvalue = [6, 0]"] ;
189 -> 233 ;
234 [label="Unnamed: 0 <= 83799.0\ngini = 0.4898\nsamples = 7\nvalue = [3, 4]"] ;
188 -> 234 ;
235 [label="Unnamed: 0 <= 83026.0\ngini = 0.375\nsamples = 4\nvalue = [1, 3]"] ;
234 -> 235 ;
236 [label="Unnamed: 0 <= 81675.5\ngini = 0.5\nsamples = 2\nvalue = [1, 1]"] ;
235 -> 236 ;
237 [label="gini = 0.0\nsamples = 1\nvalue = [0, 1]"] ;
236 -> 237 ;
238 [label="gini = 0.0\nsamples = 1\nvalue = [1, 0]"] ;
236 -> 238 ;
239 [label="gini = 0.0\nsamples = 2\nvalue = [0, 2]"] ;
235 -> 239 ;
240 [label="Unnamed: 0 <= 84476.0\ngini = 0.4444\nsamples = 3\nvalue = [2, 1]"] ;
234 -> 240 ;
241 [label="gini = 0.0\nsamples = 2\nvalue = [2, 0]"] ;
240 -> 241 ;
242 [label="gini = 0.0\nsamples = 1\nvalue = [0, 1]"] ;
240 -> 242 ;
243 [label="Unnamed: 0 <= 85574.5\ngini = 0.2975\nsamples = 11\nvalue = [9, 2]"] ;
187 -> 243 ;
244 [label="gini = 0.0\nsamples = 4\nvalue = [4, 0]"] ;
243 -> 244 ;
245 [label="Unnamed: 0 <= 85855.0\ngini = 0.4082\nsamples = 7\nvalue = [5, 2]"] ;
243 -> 245 ;
246 [label="gini = 0.0\nsamples = 1\nvalue = [0, 1]"] ;
245 -> 246 ;
247 [label="Unnamed: 0 <= 86272.5\ngini = 0.2778\nsamples = 6\nvalue = [5, 1]"] ;
245 -> 247 ;
248 [label="gini = 0.0\nsamples = 3\nvalue = [3, 0]"] ;
247 -> 248 ;
249 [label="Unnamed: 0 <= 86502.0\ngini = 0.4444\nsamples = 3\nvalue = [2, 1]"] ;
247 -> 249 ;
250 [label="gini = 0.0\nsamples = 1\nvalue = [0, 1]"] ;
249 -> 250 ;
251 [label="gini = 0.0\nsamples = 2\nvalue = [2, 0]"] ;
249 -> 251 ;
252 [label="Unnamed: 0 <= 92365.5\ngini = 0.4907\nsamples = 44\nvalue = [25, 19]"] ;
186 -> 252 ;
253 [label="Unnamed: 0 <= 90958.0\ngini = 0.4444\nsamples = 9\nvalue = [3, 6]"] ;
252 -> 253 ;
254 [label="Unnamed: 0 <= 88163.0\ngini = 0.48\nsamples = 5\nvalue = [3, 2]"] ;
253 -> 254 ;
255 [label="Unnamed: 0 <= 87832.0\ngini = 0.4444\nsamples = 3\nvalue = [1, 2]"] ;
254 -> 255 ;
256 [label="gini = 0.0\nsamples = 1\nvalue = [0, 1]"] ;
255 -> 256 ;
257 [label="Unnamed: 0 <= 87946.0\ngini = 0.5\nsamples = 2\nvalue = [1, 1]"] ;
255 -> 257 ;
258 [label="gini = 0.0\nsamples = 1\nvalue = [1, 0]"] ;
257 -> 258 ;
259 [label="gini = 0.0\nsamples = 1\nvalue = [0, 1]"] ;
257 -> 259 ;
260 [label="gini = 0.0\nsamples = 2\nvalue = [2, 0]"] ;
254 -> 260 ;
261 [label="gini = 0.0\nsamples = 4\nvalue = [0, 4]"] ;
253 -> 261 ;
262 [label="Unnamed: 0 <= 92986.5\ngini = 0.4669\nsamples = 35\nvalue = [22, 13]"] ;
252 -> 262 ;
263 [label="gini = 0.0\nsamples = 4\nvalue = [4, 0]"] ;
262 -> 263 ;
264 [label="Unnamed: 0 <= 93468.0\ngini = 0.487\nsamples = 31\nvalue = [18, 13]"] ;
262 -> 264 ;
265 [label="gini = 0.0\nsamples = 2\nvalue = [0, 2]"] ;
264 -> 265 ;
266 [label="Unnamed: 0 <= 94925.5\ngini = 0.4709\nsamples = 29\nvalue = [18, 11]"] ;
264 -> 266 ;
267 [label="Unnamed: 0 <= 93995.5\ngini = 0.2449\nsamples = 7\nvalue = [6, 1]"] ;
266 -> 267 ;
268 [label="Unnamed: 0 <= 93684.5\ngini = 0.4444\nsamples = 3\nvalue = [2, 1]"] ;
267 -> 268 ;
269 [label="gini = 0.0\nsamples = 2\nvalue = [2, 0]"] ;
268 -> 269 ;
270 [label="gini = 0.0\nsamples = 1\nvalue = [0, 1]"] ;
268 -> 270 ;
271 [label="gini = 0.0\nsamples = 4\nvalue = [4, 0]"] ;
267 -> 271 ;
272 [label="Unnamed: 0 <= 96029.0\ngini = 0.4959\nsamples = 22\nvalue = [12, 10]"] ;
266 -> 272 ;
273 [label="gini = 0.0\nsamples = 2\nvalue = [0, 2]"] ;
272 -> 273 ;
274 [label="Unnamed: 0 <= 102771.5\ngini = 0.48\nsamples = 20\nvalue = [12, 8]"] ;
272 -> 274 ;
275 [label="Unnamed: 0 <= 100275.5\ngini = 0.4654\nsamples = 19\nvalue = [12, 7]"] ;
274 -> 275 ;
276 [label="Unnamed: 0 <= 99732.0\ngini = 0.375\nsamples = 8\nvalue = [6, 2]"] ;
275 -> 276 ;
277 [label="Unnamed: 0 <= 99136.0\ngini = 0.48\nsamples = 5\nvalue = [3, 2]"] ;
276 -> 277 ;
278 [label="Unnamed: 0 <= 98519.5\ngini = 0.375\nsamples = 4\nvalue = [3, 1]"] ;
277 -> 278 ;
279 [label="Unnamed: 0 <= 97507.5\ngini = 0.5\nsamples = 2\nvalue = [1, 1]"] ;
278 -> 279 ;
280 [label="gini = 0.0\nsamples = 1\nvalue = [1, 0]"] ;
279 -> 280 ;
281 [label="gini = 0.0\nsamples = 1\nvalue = [0, 1]"] ;
279 -> 281 ;
282 [label="gini = 0.0\nsamples = 2\nvalue = [2, 0]"] ;
278 -> 282 ;
283 [label="gini = 0.0\nsamples = 1\nvalue = [0, 1]"] ;
277 -> 283 ;
284 [label="gini = 0.0\nsamples = 3\nvalue = [3, 0]"] ;
276 -> 284 ;
285 [label="Unnamed: 0 <= 100840.0\ngini = 0.4959\nsamples = 11\nvalue = [6, 5]"] ;
275 -> 285 ;
286 [label="gini = 0.0\nsamples = 2\nvalue = [0, 2]"] ;
285 -> 286 ;
287 [label="Unnamed: 0 <= 100979.5\ngini = 0.4444\nsamples = 9\nvalue = [6, 3]"] ;
285 -> 287 ;
288 [label="gini = 0.0\nsamples = 2\nvalue = [2, 0]"] ;
287 -> 288 ;
289 [label="Unnamed: 0 <= 101226.5\ngini = 0.4898\nsamples = 7\nvalue = [4, 3]"] ;
287 -> 289 ;
290 [label="gini = 0.0\nsamples = 2\nvalue = [0, 2]"] ;
289 -> 290 ;
291 [label="Unnamed: 0 <= 102167.0\ngini = 0.32\nsamples = 5\nvalue = [4, 1]"] ;
289 -> 291 ;
292 [label="gini = 0.0\nsamples = 3\nvalue = [3, 0]"] ;
291 -> 292 ;
293 [label="Unnamed: 0 <= 102680.5\ngini = 0.5\nsamples = 2\nvalue = [1, 1]"] ;
291 -> 293 ;
294 [label="gini = 0.0\nsamples = 1\nvalue = [0, 1]"] ;
293 -> 294 ;
295 [label="gini = 0.0\nsamples = 1\nvalue = [1, 0]"] ;
293 -> 295 ;
296 [label="gini = 0.0\nsamples = 1\nvalue = [0, 1]"] ;
274 -> 296 ;
297 [label="gini = 0.0\nsamples = 3\nvalue = [3, 0]"] ;
185 -> 297 ;
298 [label="Unnamed: 0 <= 106847.5\ngini = 0.4922\nsamples = 16\nvalue = [7, 9]"] ;
142 -> 298 ;
299 [label="gini = 0.0\nsamples = 3\nvalue = [0, 3]"] ;
298 -> 299 ;
300 [label="Unnamed: 0 <= 107408.0\ngini = 0.497\nsamples = 13\nvalue = [7, 6]"] ;
298 -> 300 ;
301 [label="gini = 0.0\nsamples = 1\nvalue = [1, 0]"] ;
300 -> 301 ;
302 [label="Unnamed: 0 <= 108093.5\ngini = 0.5\nsamples = 12\nvalue = [6, 6]"] ;
300 -> 302 ;
303 [label="gini = 0.0\nsamples = 2\nvalue = [0, 2]"] ;
302 -> 303 ;
304 [label="Unnamed: 0 <= 108270.5\ngini = 0.48\nsamples = 10\nvalue = [6, 4]"] ;
302 -> 304 ;
305 [label="gini = 0.0\nsamples = 2\nvalue = [2, 0]"] ;
304 -> 305 ;
306 [label="Unnamed: 0 <= 108543.5\ngini = 0.5\nsamples = 8\nvalue = [4, 4]"] ;
304 -> 306 ;
307 [label="gini = 0.0\nsamples = 2\nvalue = [0, 2]"] ;
306 -> 307 ;
308 [label="Unnamed: 0 <= 109386.0\ngini = 0.4444\nsamples = 6\nvalue = [4, 2]"] ;
306 -> 308 ;
309 [label="gini = 0.0\nsamples = 3\nvalue = [3, 0]"] ;
308 -> 309 ;
310 [label="Unnamed: 0 <= 110791.5\ngini = 0.4444\nsamples = 3\nvalue = [1, 2]"] ;
308 -> 310 ;
311 [label="gini = 0.0\nsamples = 2\nvalue = [0, 2]"] ;
310 -> 311 ;
312 [label="gini = 0.0\nsamples = 1\nvalue = [1, 0]"] ;
310 -> 312 ;
313 [label="Unnamed: 0 <= 67071.0\ngini = 0.2098\nsamples = 84\nvalue = [74, 10]"] ;
139 -> 313 ;
314 [label="Unnamed: 0 <= 63925.0\ngini = 0.48\nsamples = 10\nvalue = [6, 4]"] ;
313 -> 314 ;
315 [label="Unnamed: 0 <= 62164.5\ngini = 0.2449\nsamples = 7\nvalue = [6, 1]"] ;
314 -> 315 ;
316 [label="Unnamed: 0 <= 61596.0\ngini = 0.4444\nsamples = 3\nvalue = [2, 1]"] ;
315 -> 316 ;
317 [label="gini = 0.0\nsamples = 2\nvalue = [2, 0]"] ;
316 -> 317 ;
318 [label="gini = 0.0\nsamples = 1\nvalue = [0, 1]"] ;
316 -> 318 ;
319 [label="gini = 0.0\nsamples = 4\nvalue = [4, 0]"] ;
315 -> 319 ;
320 [label="gini = 0.0\nsamples = 3\nvalue = [0, 3]"] ;
314 -> 320 ;
321 [label="Unnamed: 0 <= 74843.0\ngini = 0.149\nsamples = 74\nvalue = [68, 6]"] ;
313 -> 321 ;
322 [label="gini = 0.0\nsamples = 19\nvalue = [19, 0]"] ;
321 -> 322 ;
323 [label="Unnamed: 0 <= 78508.0\ngini = 0.1944\nsamples = 55\nvalue = [49, 6]"] ;
321 -> 323 ;
324 [label="Unnamed: 0 <= 76411.0\ngini = 0.4898\nsamples = 7\nvalue = [4, 3]"] ;
323 -> 324 ;
325 [label="gini = 0.0\nsamples = 1\nvalue = [0, 1]"] ;
324 -> 325 ;
326 [label="Unnamed: 0 <= 76868.0\ngini = 0.4444\nsamples = 6\nvalue = [4, 2]"] ;
324 -> 326 ;
327 [label="gini = 0.0\nsamples = 3\nvalue = [3, 0]"] ;
326 -> 327 ;
328 [label="Unnamed: 0 <= 77442.0\ngini = 0.4444\nsamples = 3\nvalue = [1, 2]"] ;
326 -> 328 ;
329 [label="gini = 0.0\nsamples = 1\nvalue = [0, 1]"] ;
328 -> 329 ;
330 [label="Unnamed: 0 <= 78028.5\ngini = 0.5\nsamples = 2\nvalue = [1, 1]"] ;
328 -> 330 ;
331 [label="gini = 0.0\nsamples = 1\nvalue = [1, 0]"] ;
330 -> 331 ;
332 [label="gini = 0.0\nsamples = 1\nvalue = [0, 1]"] ;
330 -> 332 ;
333 [label="Unnamed: 0 <= 96250.5\ngini = 0.1172\nsamples = 48\nvalue = [45, 3]"] ;
323 -> 333 ;
334 [label="Unnamed: 0 <= 85890.0\ngini = 0.0605\nsamples = 32\nvalue = [31, 1]"] ;
333 -> 334 ;
335 [label="Unnamed: 0 <= 85440.5\ngini = 0.1244\nsamples = 15\nvalue = [14, 1]"] ;
334 -> 335 ;
336 [label="gini = 0.0\nsamples = 14\nvalue = [14, 0]"] ;
335 -> 336 ;
337 [label="gini = 0.0\nsamples = 1\nvalue = [0, 1]"] ;
335 -> 337 ;
338 [label="gini = 0.0\nsamples = 17\nvalue = [17, 0]"] ;
334 -> 338 ;
339 [label="Unnamed: 0 <= 97703.5\ngini = 0.2188\nsamples = 16\nvalue = [14, 2]"] ;
333 -> 339 ;
340 [label="gini = 0.0\nsamples = 2\nvalue = [0, 2]"] ;
339 -> 340 ;
341 [label="gini = 0.0\nsamples = 14\nvalue = [14, 0]"] ;
339 -> 341 ;
342 [label="gini = 0.0\nsamples = 340\nvalue = [0, 340]"] ;
0 -> 342 [labeldistance=2.5, labelangle=-45, headlabel="False"] ;
}