digraph Tree {
node [shape=box] ;
0 [label="Cou <= 0.5\ngini = 0.4684\nsamples = 823\nvalue = [308, 515]"] ;
1 [label="MajorUsCarrier <= 0.5\ngini = 0.4621\nsamples = 483\nvalue = [308, 175]"] ;
0 -> 1 [labeldistance=2.5, labelangle=45, headlabel="True"] ;
2 [label="gini = 0.0\nsamples = 41\nvalue = [41, 0]"] ;
1 -> 2 ;
3 [label="AltCat <= 0.5\ngini = 0.4783\nsamples = 442\nvalue = [267, 175]"] ;
1 -> 3 ;
4 [label="CruisingSpd <= 0.5\ngini = 0.4993\nsamples = 193\nvalue = [93, 100]"] ;
3 -> 4 ;
5 [label="Weekday <= 3.0\ngini = 0.4989\nsamples = 191\nvalue = [91, 100]"] ;
4 -> 5 ;
6 [label="gini = 0.4991\nsamples = 190\nvalue = [91, 99]"] ;
5 -> 6 ;
7 [label="gini = 0.0\nsamples = 1\nvalue = [0, 1]"] ;
5 -> 7 ;
8 [label="gini = 0.0\nsamples = 2\nvalue = [2, 0]"] ;
4 -> 8 ;
9 [label="AltCat <= 1.5\ngini = 0.421\nsamples = 249\nvalue = [174, 75]"] ;
3 -> 9 ;
10 [label="Weekday <= 3.0\ngini = 0.3512\nsamples = 154\nvalue = [119, 35]"] ;
9 -> 10 ;
11 [label="CruisingSpd <= 0.5\ngini = 0.3529\nsamples = 153\nvalue = [118, 35]"] ;
10 -> 11 ;
12 [label="gini = 0.3457\nsamples = 81\nvalue = [63, 18]"] ;
11 -> 12 ;
13 [label="gini = 0.3607\nsamples = 72\nvalue = [55, 17]"] ;
11 -> 13 ;
14 [label="gini = 0.0\nsamples = 1\nvalue = [1, 0]"] ;
10 -> 14 ;
15 [label="CruisingSpd <= 0.5\ngini = 0.4875\nsamples = 95\nvalue = [55, 40]"] ;
9 -> 15 ;
16 [label="gini = 0.0\nsamples = 7\nvalue = [7, 0]"] ;
15 -> 16 ;
17 [label="Weekday <= 3.0\ngini = 0.4959\nsamples = 88\nvalue = [48, 40]"] ;
15 -> 17 ;
18 [label="gini = 0.4968\nsamples = 87\nvalue = [47, 40]"] ;
17 -> 18 ;
19 [label="gini = 0.0\nsamples = 1\nvalue = [1, 0]"] ;
17 -> 19 ;
20 [label="gini = 0.0\nsamples = 340\nvalue = [0, 340]"] ;
0 -> 20 [labeldistance=2.5, labelangle=-45, headlabel="False"] ;
}