digraph Tree {
node [shape=box] ;
0 [label="Cou <= 0.5\ngini = 0.4684\nsamples = 823\nvalue = [308, 515]"] ;
1 [label="MajorUsCarrier <= 0.5\ngini = 0.4621\nsamples = 483\nvalue = [308, 175]"] ;
0 -> 1 [labeldistance=2.5, labelangle=45, headlabel="True"] ;
2 [label="gini = 0.0\nsamples = 41\nvalue = [41, 0]"] ;
1 -> 2 ;
3 [label="Unnamed: 0 <= 59526.0\ngini = 0.4783\nsamples = 442\nvalue = [267, 175]"] ;
1 -> 3 ;
4 [label="Unnamed: 0 <= 8062.5\ngini = 0.4965\nsamples = 192\nvalue = [88, 104]"] ;
3 -> 4 ;
5 [label="Unnamed: 0 <= 5995.5\ngini = 0.2449\nsamples = 28\nvalue = [24, 4]"] ;
4 -> 5 ;
6 [label="Weekday <= 3.0\ngini = 0.0997\nsamples = 19\nvalue = [18, 1]"] ;
5 -> 6 ;
7 [label="gini = 0.0\nsamples = 17\nvalue = [17, 0]"] ;
6 -> 7 ;
8 [label="gini = 0.5\nsamples = 2\nvalue = [1, 1]"] ;
6 -> 8 ;
9 [label="Unnamed: 0 <= 6651.0\ngini = 0.4444\nsamples = 9\nvalue = [6, 3]"] ;
5 -> 9 ;
10 [label="Unnamed: 0 <= 6524.0\ngini = 0.375\nsamples = 4\nvalue = [1, 3]"] ;
9 -> 10 ;
11 [label="gini = 0.0\nsamples = 2\nvalue = [0, 2]"] ;
10 -> 11 ;
12 [label="gini = 0.5\nsamples = 2\nvalue = [1, 1]"] ;
10 -> 12 ;
13 [label="gini = 0.0\nsamples = 5\nvalue = [5, 0]"] ;
9 -> 13 ;
14 [label="Unnamed: 0 <= 44810.0\ngini = 0.4759\nsamples = 164\nvalue = [64, 100]"] ;
4 -> 14 ;
15 [label="Unnamed: 0 <= 30956.5\ngini = 0.4286\nsamples = 90\nvalue = [28, 62]"] ;
14 -> 15 ;
16 [label="Unnamed: 0 <= 10022.5\ngini = 0.4849\nsamples = 46\nvalue = [19, 27]"] ;
15 -> 16 ;
17 [label="gini = 0.0\nsamples = 6\nvalue = [0, 6]"] ;
16 -> 17 ;
18 [label="Unnamed: 0 <= 29197.5\ngini = 0.4988\nsamples = 40\nvalue = [19, 21]"] ;
16 -> 18 ;
19 [label="Unnamed: 0 <= 26786.5\ngini = 0.4909\nsamples = 37\nvalue = [16, 21]"] ;
18 -> 19 ;
20 [label="CruisingSpd <= 0.5\ngini = 0.4995\nsamples = 33\nvalue = [16, 17]"] ;
19 -> 20 ;
21 [label="Unnamed: 0 <= 21775.5\ngini = 0.4717\nsamples = 21\nvalue = [8, 13]"] ;
20 -> 21 ;
22 [label="Unnamed: 0 <= 15758.5\ngini = 0.4152\nsamples = 17\nvalue = [5, 12]"] ;
21 -> 22 ;
23 [label="Unnamed: 0 <= 13700.5\ngini = 0.5\nsamples = 8\nvalue = [4, 4]"] ;
22 -> 23 ;
24 [label="Unnamed: 0 <= 11926.5\ngini = 0.32\nsamples = 5\nvalue = [1, 4]"] ;
23 -> 24 ;
25 [label="gini = 0.0\nsamples = 2\nvalue = [0, 2]"] ;
24 -> 25 ;
26 [label="gini = 0.4444\nsamples = 3\nvalue = [1, 2]"] ;
24 -> 26 ;
27 [label="gini = 0.0\nsamples = 3\nvalue = [3, 0]"] ;
23 -> 27 ;
28 [label="Unnamed: 0 <= 19221.0\ngini = 0.1975\nsamples = 9\nvalue = [1, 8]"] ;
22 -> 28 ;
29 [label="gini = 0.0\nsamples = 5\nvalue = [0, 5]"] ;
28 -> 29 ;
30 [label="Unnamed: 0 <= 20748.0\ngini = 0.375\nsamples = 4\nvalue = [1, 3]"] ;
28 -> 30 ;
31 [label="gini = 0.5\nsamples = 2\nvalue = [1, 1]"] ;
30 -> 31 ;
32 [label="gini = 0.0\nsamples = 2\nvalue = [0, 2]"] ;
30 -> 32 ;
33 [label="Unnamed: 0 <= 22446.0\ngini = 0.375\nsamples = 4\nvalue = [3, 1]"] ;
21 -> 33 ;
34 [label="gini = 0.0\nsamples = 2\nvalue = [2, 0]"] ;
33 -> 34 ;
35 [label="gini = 0.5\nsamples = 2\nvalue = [1, 1]"] ;
33 -> 35 ;
36 [label="Unnamed: 0 <= 12662.5\ngini = 0.4444\nsamples = 12\nvalue = [8, 4]"] ;
20 -> 36 ;
37 [label="gini = 0.0\nsamples = 2\nvalue = [2, 0]"] ;
36 -> 37 ;
38 [label="Unnamed: 0 <= 14284.0\ngini = 0.48\nsamples = 10\nvalue = [6, 4]"] ;
36 -> 38 ;
39 [label="gini = 0.0\nsamples = 2\nvalue = [0, 2]"] ;
38 -> 39 ;
40 [label="Unnamed: 0 <= 23865.0\ngini = 0.375\nsamples = 8\nvalue = [6, 2]"] ;
38 -> 40 ;
41 [label="gini = 0.0\nsamples = 4\nvalue = [4, 0]"] ;
40 -> 41 ;
42 [label="Unnamed: 0 <= 26159.0\ngini = 0.5\nsamples = 4\nvalue = [2, 2]"] ;
40 -> 42 ;
43 [label="gini = 0.0\nsamples = 2\nvalue = [0, 2]"] ;
42 -> 43 ;
44 [label="gini = 0.0\nsamples = 2\nvalue = [2, 0]"] ;
42 -> 44 ;
45 [label="gini = 0.0\nsamples = 4\nvalue = [0, 4]"] ;
19 -> 45 ;
46 [label="gini = 0.0\nsamples = 3\nvalue = [3, 0]"] ;
18 -> 46 ;
47 [label="Unnamed: 0 <= 42194.0\ngini = 0.3254\nsamples = 44\nvalue = [9, 35]"] ;
15 -> 47 ;
48 [label="Unnamed: 0 <= 37014.5\ngini = 0.375\nsamples = 36\nvalue = [9, 27]"] ;
47 -> 48 ;
49 [label="Unnamed: 0 <= 33955.0\ngini = 0.1884\nsamples = 19\nvalue = [2, 17]"] ;
48 -> 49 ;
50 [label="Unnamed: 0 <= 32922.5\ngini = 0.3457\nsamples = 9\nvalue = [2, 7]"] ;
49 -> 50 ;
51 [label="gini = 0.0\nsamples = 5\nvalue = [0, 5]"] ;
50 -> 51 ;
52 [label="Unnamed: 0 <= 33784.5\ngini = 0.5\nsamples = 4\nvalue = [2, 2]"] ;
50 -> 52 ;
53 [label="gini = 0.5\nsamples = 2\nvalue = [1, 1]"] ;
52 -> 53 ;
54 [label="gini = 0.5\nsamples = 2\nvalue = [1, 1]"] ;
52 -> 54 ;
55 [label="gini = 0.0\nsamples = 10\nvalue = [0, 10]"] ;
49 -> 55 ;
56 [label="Unnamed: 0 <= 38476.0\ngini = 0.4844\nsamples = 17\nvalue = [7, 10]"] ;
48 -> 56 ;
57 [label="gini = 0.0\nsamples = 4\nvalue = [4, 0]"] ;
56 -> 57 ;
58 [label="Unnamed: 0 <= 40385.0\ngini = 0.355\nsamples = 13\nvalue = [3, 10]"] ;
56 -> 58 ;
59 [label="gini = 0.0\nsamples = 5\nvalue = [0, 5]"] ;
58 -> 59 ;
60 [label="Unnamed: 0 <= 41510.5\ngini = 0.4688\nsamples = 8\nvalue = [3, 5]"] ;
58 -> 60 ;
61 [label="Unnamed: 0 <= 40988.0\ngini = 0.375\nsamples = 4\nvalue = [1, 3]"] ;
60 -> 61 ;
62 [label="gini = 0.5\nsamples = 2\nvalue = [1, 1]"] ;
61 -> 62 ;
63 [label="gini = 0.0\nsamples = 2\nvalue = [0, 2]"] ;
61 -> 63 ;
64 [label="CruisingSpd <= 0.5\ngini = 0.5\nsamples = 4\nvalue = [2, 2]"] ;
60 -> 64 ;
65 [label="gini = 0.5\nsamples = 2\nvalue = [1, 1]"] ;
64 -> 65 ;
66 [label="gini = 0.5\nsamples = 2\nvalue = [1, 1]"] ;
64 -> 66 ;
67 [label="gini = 0.0\nsamples = 8\nvalue = [0, 8]"] ;
47 -> 67 ;
68 [label="Unnamed: 0 <= 45988.5\ngini = 0.4996\nsamples = 74\nvalue = [36, 38]"] ;
14 -> 68 ;
69 [label="gini = 0.0\nsamples = 6\nvalue = [6, 0]"] ;
68 -> 69 ;
70 [label="CruisingSpd <= 0.5\ngini = 0.4931\nsamples = 68\nvalue = [30, 38]"] ;
68 -> 70 ;
71 [label="Unnamed: 0 <= 47745.5\ngini = 0.4965\nsamples = 48\nvalue = [26, 22]"] ;
70 -> 71 ;
72 [label="Unnamed: 0 <= 46886.5\ngini = 0.2778\nsamples = 6\nvalue = [1, 5]"] ;
71 -> 72 ;
73 [label="gini = 0.0\nsamples = 3\nvalue = [0, 3]"] ;
72 -> 73 ;
74 [label="gini = 0.4444\nsamples = 3\nvalue = [1, 2]"] ;
72 -> 74 ;
75 [label="Unnamed: 0 <= 58382.5\ngini = 0.4819\nsamples = 42\nvalue = [25, 17]"] ;
71 -> 75 ;
76 [label="Unnamed: 0 <= 54062.0\ngini = 0.4602\nsamples = 39\nvalue = [25, 14]"] ;
75 -> 76 ;
77 [label="Unnamed: 0 <= 49397.0\ngini = 0.3599\nsamples = 17\nvalue = [13, 4]"] ;
76 -> 77 ;
78 [label="Unnamed: 0 <= 48738.0\ngini = 0.5\nsamples = 6\nvalue = [3, 3]"] ;
77 -> 78 ;
79 [label="gini = 0.0\nsamples = 2\nvalue = [2, 0]"] ;
78 -> 79 ;
80 [label="Unnamed: 0 <= 49183.0\ngini = 0.375\nsamples = 4\nvalue = [1, 3]"] ;
78 -> 80 ;
81 [label="gini = 0.5\nsamples = 2\nvalue = [1, 1]"] ;
80 -> 81 ;
82 [label="gini = 0.0\nsamples = 2\nvalue = [0, 2]"] ;
80 -> 82 ;
83 [label="Unnamed: 0 <= 51753.5\ngini = 0.1653\nsamples = 11\nvalue = [10, 1]"] ;
77 -> 83 ;
84 [label="Unnamed: 0 <= 50851.0\ngini = 0.32\nsamples = 5\nvalue = [4, 1]"] ;
83 -> 84 ;
85 [label="gini = 0.0\nsamples = 3\nvalue = [3, 0]"] ;
84 -> 85 ;
86 [label="gini = 0.5\nsamples = 2\nvalue = [1, 1]"] ;
84 -> 86 ;
87 [label="gini = 0.0\nsamples = 6\nvalue = [6, 0]"] ;
83 -> 87 ;
88 [label="Unnamed: 0 <= 56899.0\ngini = 0.4959\nsamples = 22\nvalue = [12, 10]"] ;
76 -> 88 ;
89 [label="Unnamed: 0 <= 54395.5\ngini = 0.4986\nsamples = 19\nvalue = [9, 10]"] ;
88 -> 89 ;
90 [label="gini = 0.0\nsamples = 2\nvalue = [0, 2]"] ;
89 -> 90 ;
91 [label="Unnamed: 0 <= 56831.0\ngini = 0.4983\nsamples = 17\nvalue = [9, 8]"] ;
89 -> 91 ;
92 [label="Unnamed: 0 <= 54879.5\ngini = 0.48\nsamples = 15\nvalue = [9, 6]"] ;
91 -> 92 ;
93 [label="gini = 0.0\nsamples = 2\nvalue = [2, 0]"] ;
92 -> 93 ;
94 [label="Unnamed: 0 <= 55053.0\ngini = 0.497\nsamples = 13\nvalue = [7, 6]"] ;
92 -> 94 ;
95 [label="gini = 0.0\nsamples = 2\nvalue = [0, 2]"] ;
94 -> 95 ;
96 [label="Unnamed: 0 <= 55259.5\ngini = 0.4628\nsamples = 11\nvalue = [7, 4]"] ;
94 -> 96 ;
97 [label="gini = 0.0\nsamples = 2\nvalue = [2, 0]"] ;
96 -> 97 ;
98 [label="Unnamed: 0 <= 56658.0\ngini = 0.4938\nsamples = 9\nvalue = [5, 4]"] ;
96 -> 98 ;
99 [label="Unnamed: 0 <= 56082.0\ngini = 0.4898\nsamples = 7\nvalue = [3, 4]"] ;
98 -> 99 ;
100 [label="gini = 0.4444\nsamples = 3\nvalue = [2, 1]"] ;
99 -> 100 ;
101 [label="Unnamed: 0 <= 56493.5\ngini = 0.375\nsamples = 4\nvalue = [1, 3]"] ;
99 -> 101 ;
102 [label="gini = 0.0\nsamples = 2\nvalue = [0, 2]"] ;
101 -> 102 ;
103 [label="gini = 0.5\nsamples = 2\nvalue = [1, 1]"] ;
101 -> 103 ;
104 [label="gini = 0.0\nsamples = 2\nvalue = [2, 0]"] ;
98 -> 104 ;
105 [label="gini = 0.0\nsamples = 2\nvalue = [0, 2]"] ;
91 -> 105 ;
106 [label="gini = 0.0\nsamples = 3\nvalue = [3, 0]"] ;
88 -> 106 ;
107 [label="gini = 0.0\nsamples = 3\nvalue = [0, 3]"] ;
75 -> 107 ;
108 [label="Unnamed: 0 <= 49493.5\ngini = 0.32\nsamples = 20\nvalue = [4, 16]"] ;
70 -> 108 ;
109 [label="Unnamed: 0 <= 49035.0\ngini = 0.4688\nsamples = 8\nvalue = [3, 5]"] ;
108 -> 109 ;
110 [label="Unnamed: 0 <= 47946.5\ngini = 0.2778\nsamples = 6\nvalue = [1, 5]"] ;
109 -> 110 ;
111 [label="gini = 0.0\nsamples = 3\nvalue = [0, 3]"] ;
110 -> 111 ;
112 [label="gini = 0.4444\nsamples = 3\nvalue = [1, 2]"] ;
110 -> 112 ;
113 [label="gini = 0.0\nsamples = 2\nvalue = [2, 0]"] ;
109 -> 113 ;
114 [label="Unnamed: 0 <= 56558.0\ngini = 0.1528\nsamples = 12\nvalue = [1, 11]"] ;
108 -> 114 ;
115 [label="gini = 0.0\nsamples = 8\nvalue = [0, 8]"] ;
114 -> 115 ;
116 [label="Unnamed: 0 <= 58256.5\ngini = 0.375\nsamples = 4\nvalue = [1, 3]"] ;
114 -> 116 ;
117 [label="gini = 0.5\nsamples = 2\nvalue = [1, 1]"] ;
116 -> 117 ;
118 [label="gini = 0.0\nsamples = 2\nvalue = [0, 2]"] ;
116 -> 118 ;
119 [label="CruisingSpd <= 0.5\ngini = 0.4067\nsamples = 250\nvalue = [179, 71]"] ;
3 -> 119 ;
120 [label="Unnamed: 0 <= 61440.0\ngini = 0.4649\nsamples = 166\nvalue = [105, 61]"] ;
119 -> 120 ;
121 [label="gini = 0.0\nsamples = 6\nvalue = [6, 0]"] ;
120 -> 121 ;
122 [label="Unnamed: 0 <= 105761.5\ngini = 0.4718\nsamples = 160\nvalue = [99, 61]"] ;
120 -> 122 ;
123 [label="Unnamed: 0 <= 63994.5\ngini = 0.4614\nsamples = 144\nvalue = [92, 52]"] ;
122 -> 123 ;
124 [label="Unnamed: 0 <= 63648.5\ngini = 0.4688\nsamples = 8\nvalue = [3, 5]"] ;
123 -> 124 ;
125 [label="Unnamed: 0 <= 61745.5\ngini = 0.5\nsamples = 6\nvalue = [3, 3]"] ;
124 -> 125 ;
126 [label="gini = 0.4444\nsamples = 3\nvalue = [1, 2]"] ;
125 -> 126 ;
127 [label="gini = 0.4444\nsamples = 3\nvalue = [2, 1]"] ;
125 -> 127 ;
128 [label="gini = 0.0\nsamples = 2\nvalue = [0, 2]"] ;
124 -> 128 ;
129 [label="Unnamed: 0 <= 65897.0\ngini = 0.4523\nsamples = 136\nvalue = [89, 47]"] ;
123 -> 129 ;
130 [label="Unnamed: 0 <= 64128.5\ngini = 0.2778\nsamples = 12\nvalue = [10, 2]"] ;
129 -> 130 ;
131 [label="gini = 0.0\nsamples = 3\nvalue = [3, 0]"] ;
130 -> 131 ;
132 [label="Unnamed: 0 <= 65697.5\ngini = 0.3457\nsamples = 9\nvalue = [7, 2]"] ;
130 -> 132 ;
133 [label="Unnamed: 0 <= 64298.0\ngini = 0.4444\nsamples = 6\nvalue = [4, 2]"] ;
132 -> 133 ;
134 [label="gini = 0.5\nsamples = 2\nvalue = [1, 1]"] ;
133 -> 134 ;
135 [label="Unnamed: 0 <= 64476.0\ngini = 0.375\nsamples = 4\nvalue = [3, 1]"] ;
133 -> 135 ;
136 [label="gini = 0.0\nsamples = 2\nvalue = [2, 0]"] ;
135 -> 136 ;
137 [label="gini = 0.5\nsamples = 2\nvalue = [1, 1]"] ;
135 -> 137 ;
138 [label="gini = 0.0\nsamples = 3\nvalue = [3, 0]"] ;
132 -> 138 ;
139 [label="Unnamed: 0 <= 70450.0\ngini = 0.4624\nsamples = 124\nvalue = [79, 45]"] ;
129 -> 139 ;
140 [label="Unnamed: 0 <= 69578.5\ngini = 0.48\nsamples = 10\nvalue = [4, 6]"] ;
139 -> 140 ;
141 [label="Unnamed: 0 <= 68285.0\ngini = 0.4898\nsamples = 7\nvalue = [4, 3]"] ;
140 -> 141 ;
142 [label="gini = 0.4444\nsamples = 3\nvalue = [2, 1]"] ;
141 -> 142 ;
143 [label="Unnamed: 0 <= 68949.5\ngini = 0.5\nsamples = 4\nvalue = [2, 2]"] ;
141 -> 143 ;
144 [label="gini = 0.5\nsamples = 2\nvalue = [1, 1]"] ;
143 -> 144 ;
145 [label="gini = 0.5\nsamples = 2\nvalue = [1, 1]"] ;
143 -> 145 ;
146 [label="gini = 0.0\nsamples = 3\nvalue = [0, 3]"] ;
140 -> 146 ;
147 [label="Unnamed: 0 <= 70878.5\ngini = 0.4501\nsamples = 114\nvalue = [75, 39]"] ;
139 -> 147 ;
148 [label="gini = 0.0\nsamples = 3\nvalue = [3, 0]"] ;
147 -> 148 ;
149 [label="Unnamed: 0 <= 103296.0\ngini = 0.4558\nsamples = 111\nvalue = [72, 39]"] ;
147 -> 149 ;
150 [label="Unnamed: 0 <= 87472.0\ngini = 0.4614\nsamples = 108\nvalue = [69, 39]"] ;
149 -> 150 ;
151 [label="Unnamed: 0 <= 71439.5\ngini = 0.4297\nsamples = 64\nvalue = [44, 20]"] ;
150 -> 151 ;
152 [label="Unnamed: 0 <= 71116.0\ngini = 0.48\nsamples = 5\nvalue = [2, 3]"] ;
151 -> 152 ;
153 [label="gini = 0.5\nsamples = 2\nvalue = [1, 1]"] ;
152 -> 153 ;
154 [label="gini = 0.4444\nsamples = 3\nvalue = [1, 2]"] ;
152 -> 154 ;
155 [label="Unnamed: 0 <= 71755.5\ngini = 0.4102\nsamples = 59\nvalue = [42, 17]"] ;
151 -> 155 ;
156 [label="gini = 0.0\nsamples = 3\nvalue = [3, 0]"] ;
155 -> 156 ;
157 [label="Unnamed: 0 <= 84943.0\ngini = 0.4228\nsamples = 56\nvalue = [39, 17]"] ;
155 -> 157 ;
158 [label="Unnamed: 0 <= 80906.0\ngini = 0.4444\nsamples = 45\nvalue = [30, 15]"] ;
157 -> 158 ;
159 [label="Unnamed: 0 <= 79209.0\ngini = 0.4114\nsamples = 38\nvalue = [27, 11]"] ;
158 -> 159 ;
160 [label="Unnamed: 0 <= 73150.5\ngini = 0.4512\nsamples = 32\nvalue = [21, 11]"] ;
159 -> 160 ;
161 [label="Unnamed: 0 <= 72356.0\ngini = 0.32\nsamples = 5\nvalue = [4, 1]"] ;
160 -> 161 ;
162 [label="gini = 0.5\nsamples = 2\nvalue = [1, 1]"] ;
161 -> 162 ;
163 [label="gini = 0.0\nsamples = 3\nvalue = [3, 0]"] ;
161 -> 163 ;
164 [label="Unnamed: 0 <= 74658.0\ngini = 0.4664\nsamples = 27\nvalue = [17, 10]"] ;
160 -> 164 ;
165 [label="Unnamed: 0 <= 73459.0\ngini = 0.48\nsamples = 5\nvalue = [2, 3]"] ;
164 -> 165 ;
166 [label="gini = 0.4444\nsamples = 3\nvalue = [2, 1]"] ;
165 -> 166 ;
167 [label="gini = 0.0\nsamples = 2\nvalue = [0, 2]"] ;
165 -> 167 ;
168 [label="Unnamed: 0 <= 76280.5\ngini = 0.4339\nsamples = 22\nvalue = [15, 7]"] ;
164 -> 168 ;
169 [label="gini = 0.0\nsamples = 2\nvalue = [2, 0]"] ;
168 -> 169 ;
170 [label="Unnamed: 0 <= 76647.0\ngini = 0.455\nsamples = 20\nvalue = [13, 7]"] ;
168 -> 170 ;
171 [label="Unnamed: 0 <= 76456.0\ngini = 0.5\nsamples = 6\nvalue = [3, 3]"] ;
170 -> 171 ;
172 [label="Unnamed: 0 <= 76374.0\ngini = 0.375\nsamples = 4\nvalue = [3, 1]"] ;
171 -> 172 ;
173 [label="gini = 0.5\nsamples = 2\nvalue = [1, 1]"] ;
172 -> 173 ;
174 [label="gini = 0.0\nsamples = 2\nvalue = [2, 0]"] ;
172 -> 174 ;
175 [label="gini = 0.0\nsamples = 2\nvalue = [0, 2]"] ;
171 -> 175 ;
176 [label="Unnamed: 0 <= 78596.0\ngini = 0.4082\nsamples = 14\nvalue = [10, 4]"] ;
170 -> 176 ;
177 [label="Unnamed: 0 <= 77854.0\ngini = 0.2449\nsamples = 7\nvalue = [6, 1]"] ;
176 -> 177 ;
178 [label="gini = 0.4444\nsamples = 3\nvalue = [2, 1]"] ;
177 -> 178 ;
179 [label="gini = 0.0\nsamples = 4\nvalue = [4, 0]"] ;
177 -> 179 ;
180 [label="Unnamed: 0 <= 78808.5\ngini = 0.4898\nsamples = 7\nvalue = [4, 3]"] ;
176 -> 180 ;
181 [label="gini = 0.4444\nsamples = 3\nvalue = [2, 1]"] ;
180 -> 181 ;
182 [label="Unnamed: 0 <= 78828.0\ngini = 0.5\nsamples = 4\nvalue = [2, 2]"] ;
180 -> 182 ;
183 [label="gini = 0.5\nsamples = 2\nvalue = [1, 1]"] ;
182 -> 183 ;
184 [label="gini = 0.5\nsamples = 2\nvalue = [1, 1]"] ;
182 -> 184 ;
185 [label="gini = 0.0\nsamples = 6\nvalue = [6, 0]"] ;
159 -> 185 ;
186 [label="Unnamed: 0 <= 83799.0\ngini = 0.4898\nsamples = 7\nvalue = [3, 4]"] ;
158 -> 186 ;
187 [label="Unnamed: 0 <= 83026.0\ngini = 0.375\nsamples = 4\nvalue = [1, 3]"] ;
186 -> 187 ;
188 [label="gini = 0.5\nsamples = 2\nvalue = [1, 1]"] ;
187 -> 188 ;
189 [label="gini = 0.0\nsamples = 2\nvalue = [0, 2]"] ;
187 -> 189 ;
190 [label="gini = 0.4444\nsamples = 3\nvalue = [2, 1]"] ;
186 -> 190 ;
191 [label="Unnamed: 0 <= 85574.5\ngini = 0.2975\nsamples = 11\nvalue = [9, 2]"] ;
157 -> 191 ;
192 [label="gini = 0.0\nsamples = 4\nvalue = [4, 0]"] ;
191 -> 192 ;
193 [label="Unnamed: 0 <= 86502.0\ngini = 0.4082\nsamples = 7\nvalue = [5, 2]"] ;
191 -> 193 ;
194 [label="Unnamed: 0 <= 86112.5\ngini = 0.48\nsamples = 5\nvalue = [3, 2]"] ;
193 -> 194 ;
195 [label="gini = 0.5\nsamples = 2\nvalue = [1, 1]"] ;
194 -> 195 ;
196 [label="gini = 0.4444\nsamples = 3\nvalue = [2, 1]"] ;
194 -> 196 ;
197 [label="gini = 0.0\nsamples = 2\nvalue = [2, 0]"] ;
193 -> 197 ;
198 [label="Unnamed: 0 <= 92365.5\ngini = 0.4907\nsamples = 44\nvalue = [25, 19]"] ;
150 -> 198 ;
199 [label="Unnamed: 0 <= 90958.0\ngini = 0.4444\nsamples = 9\nvalue = [3, 6]"] ;
198 -> 199 ;
200 [label="Unnamed: 0 <= 88163.0\ngini = 0.48\nsamples = 5\nvalue = [3, 2]"] ;
199 -> 200 ;
201 [label="gini = 0.4444\nsamples = 3\nvalue = [1, 2]"] ;
200 -> 201 ;
202 [label="gini = 0.0\nsamples = 2\nvalue = [2, 0]"] ;
200 -> 202 ;
203 [label="gini = 0.0\nsamples = 4\nvalue = [0, 4]"] ;
199 -> 203 ;
204 [label="Unnamed: 0 <= 92986.5\ngini = 0.4669\nsamples = 35\nvalue = [22, 13]"] ;
198 -> 204 ;
205 [label="gini = 0.0\nsamples = 4\nvalue = [4, 0]"] ;
204 -> 205 ;
206 [label="Unnamed: 0 <= 93468.0\ngini = 0.487\nsamples = 31\nvalue = [18, 13]"] ;
204 -> 206 ;
207 [label="gini = 0.0\nsamples = 2\nvalue = [0, 2]"] ;
206 -> 207 ;
208 [label="Unnamed: 0 <= 94925.5\ngini = 0.4709\nsamples = 29\nvalue = [18, 11]"] ;
206 -> 208 ;
209 [label="Unnamed: 0 <= 93995.5\ngini = 0.2449\nsamples = 7\nvalue = [6, 1]"] ;
208 -> 209 ;
210 [label="gini = 0.4444\nsamples = 3\nvalue = [2, 1]"] ;
209 -> 210 ;
211 [label="gini = 0.0\nsamples = 4\nvalue = [4, 0]"] ;
209 -> 211 ;
212 [label="Unnamed: 0 <= 96029.0\ngini = 0.4959\nsamples = 22\nvalue = [12, 10]"] ;
208 -> 212 ;
213 [label="gini = 0.0\nsamples = 2\nvalue = [0, 2]"] ;
212 -> 213 ;
214 [label="Unnamed: 0 <= 100275.5\ngini = 0.48\nsamples = 20\nvalue = [12, 8]"] ;
212 -> 214 ;
215 [label="Unnamed: 0 <= 99732.0\ngini = 0.375\nsamples = 8\nvalue = [6, 2]"] ;
214 -> 215 ;
216 [label="Unnamed: 0 <= 98519.5\ngini = 0.48\nsamples = 5\nvalue = [3, 2]"] ;
215 -> 216 ;
217 [label="gini = 0.5\nsamples = 2\nvalue = [1, 1]"] ;
216 -> 217 ;
218 [label="gini = 0.4444\nsamples = 3\nvalue = [2, 1]"] ;
216 -> 218 ;
219 [label="gini = 0.0\nsamples = 3\nvalue = [3, 0]"] ;
215 -> 219 ;
220 [label="Unnamed: 0 <= 100840.0\ngini = 0.5\nsamples = 12\nvalue = [6, 6]"] ;
214 -> 220 ;
221 [label="gini = 0.0\nsamples = 2\nvalue = [0, 2]"] ;
220 -> 221 ;
222 [label="Unnamed: 0 <= 100979.5\ngini = 0.48\nsamples = 10\nvalue = [6, 4]"] ;
220 -> 222 ;
223 [label="gini = 0.0\nsamples = 2\nvalue = [2, 0]"] ;
222 -> 223 ;
224 [label="Unnamed: 0 <= 101226.5\ngini = 0.5\nsamples = 8\nvalue = [4, 4]"] ;
222 -> 224 ;
225 [label="gini = 0.0\nsamples = 2\nvalue = [0, 2]"] ;
224 -> 225 ;
226 [label="Unnamed: 0 <= 102167.0\ngini = 0.4444\nsamples = 6\nvalue = [4, 2]"] ;
224 -> 226 ;
227 [label="gini = 0.0\nsamples = 3\nvalue = [3, 0]"] ;
226 -> 227 ;
228 [label="gini = 0.4444\nsamples = 3\nvalue = [1, 2]"] ;
226 -> 228 ;
229 [label="gini = 0.0\nsamples = 3\nvalue = [3, 0]"] ;
149 -> 229 ;
230 [label="Unnamed: 0 <= 106847.5\ngini = 0.4922\nsamples = 16\nvalue = [7, 9]"] ;
122 -> 230 ;
231 [label="gini = 0.0\nsamples = 3\nvalue = [0, 3]"] ;
230 -> 231 ;
232 [label="Unnamed: 0 <= 108543.5\ngini = 0.497\nsamples = 13\nvalue = [7, 6]"] ;
230 -> 232 ;
233 [label="Unnamed: 0 <= 108270.5\ngini = 0.4898\nsamples = 7\nvalue = [3, 4]"] ;
232 -> 233 ;
234 [label="Unnamed: 0 <= 108093.5\ngini = 0.48\nsamples = 5\nvalue = [3, 2]"] ;
233 -> 234 ;
235 [label="gini = 0.4444\nsamples = 3\nvalue = [1, 2]"] ;
234 -> 235 ;
236 [label="gini = 0.0\nsamples = 2\nvalue = [2, 0]"] ;
234 -> 236 ;
237 [label="gini = 0.0\nsamples = 2\nvalue = [0, 2]"] ;
233 -> 237 ;
238 [label="Unnamed: 0 <= 109386.0\ngini = 0.4444\nsamples = 6\nvalue = [4, 2]"] ;
232 -> 238 ;
239 [label="gini = 0.0\nsamples = 3\nvalue = [3, 0]"] ;
238 -> 239 ;
240 [label="gini = 0.4444\nsamples = 3\nvalue = [1, 2]"] ;
238 -> 240 ;
241 [label="Unnamed: 0 <= 67071.0\ngini = 0.2098\nsamples = 84\nvalue = [74, 10]"] ;
119 -> 241 ;
242 [label="Unnamed: 0 <= 63925.0\ngini = 0.48\nsamples = 10\nvalue = [6, 4]"] ;
241 -> 242 ;
243 [label="Unnamed: 0 <= 62164.5\ngini = 0.2449\nsamples = 7\nvalue = [6, 1]"] ;
242 -> 243 ;
244 [label="gini = 0.4444\nsamples = 3\nvalue = [2, 1]"] ;
243 -> 244 ;
245 [label="gini = 0.0\nsamples = 4\nvalue = [4, 0]"] ;
243 -> 245 ;
246 [label="gini = 0.0\nsamples = 3\nvalue = [0, 3]"] ;
242 -> 246 ;
247 [label="Unnamed: 0 <= 74843.0\ngini = 0.149\nsamples = 74\nvalue = [68, 6]"] ;
241 -> 247 ;
248 [label="gini = 0.0\nsamples = 19\nvalue = [19, 0]"] ;
247 -> 248 ;
249 [label="Unnamed: 0 <= 78508.0\ngini = 0.1944\nsamples = 55\nvalue = [49, 6]"] ;
247 -> 249 ;
250 [label="Unnamed: 0 <= 76868.0\ngini = 0.4898\nsamples = 7\nvalue = [4, 3]"] ;
249 -> 250 ;
251 [label="Unnamed: 0 <= 76434.0\ngini = 0.375\nsamples = 4\nvalue = [3, 1]"] ;
250 -> 251 ;
252 [label="gini = 0.5\nsamples = 2\nvalue = [1, 1]"] ;
251 -> 252 ;
253 [label="gini = 0.0\nsamples = 2\nvalue = [2, 0]"] ;
251 -> 253 ;
254 [label="gini = 0.4444\nsamples = 3\nvalue = [1, 2]"] ;
250 -> 254 ;
255 [label="Unnamed: 0 <= 96250.5\ngini = 0.1172\nsamples = 48\nvalue = [45, 3]"] ;
249 -> 255 ;
256 [label="Unnamed: 0 <= 85890.0\ngini = 0.0605\nsamples = 32\nvalue = [31, 1]"] ;
255 -> 256 ;
257 [label="Unnamed: 0 <= 84441.0\ngini = 0.1244\nsamples = 15\nvalue = [14, 1]"] ;
256 -> 257 ;
258 [label="gini = 0.0\nsamples = 13\nvalue = [13, 0]"] ;
257 -> 258 ;
259 [label="gini = 0.5\nsamples = 2\nvalue = [1, 1]"] ;
257 -> 259 ;
260 [label="gini = 0.0\nsamples = 17\nvalue = [17, 0]"] ;
256 -> 260 ;
261 [label="Unnamed: 0 <= 97703.5\ngini = 0.2188\nsamples = 16\nvalue = [14, 2]"] ;
255 -> 261 ;
262 [label="gini = 0.0\nsamples = 2\nvalue = [0, 2]"] ;
261 -> 262 ;
263 [label="gini = 0.0\nsamples = 14\nvalue = [14, 0]"] ;
261 -> 263 ;
264 [label="gini = 0.0\nsamples = 340\nvalue = [0, 340]"] ;
0 -> 264 [labeldistance=2.5, labelangle=-45, headlabel="False"] ;
}